<?xml version="1.0"?>
<opencv_storage>
<cascade>
  <stageType>BOOST</stageType>
  <featureType>HAAR</featureType>
  <height>40</height>
  <width>80</width>
  <stageParams>
    <boostType>GAB</boostType>
    <minHitRate>9.9900001287460327e-01</minHitRate>
    <maxFalseAlarm>5.0000000000000000e-01</maxFalseAlarm>
    <weightTrimRate>9.4999999999999996e-01</weightTrimRate>
    <maxDepth>1</maxDepth>
    <maxWeakCount>100</maxWeakCount></stageParams>
  <featureParams>
    <maxCatCount>0</maxCatCount>
    <featSize>1</featSize>
    <mode>ALL</mode></featureParams>
  <stageNum>20</stageNum>
  <stages>
    <!-- stage 0 -->
    <_>
      <maxWeakCount>6</maxWeakCount>
      <stageThreshold>-1.3081941604614258e+00</stageThreshold>
      <weakClassifiers>
        <_>
          <internalNodes>
            0 -1 107 -3.7273513153195381e-03</internalNodes>
          <leafValues>
            7.4653100967407227e-01 -7.8420037031173706e-01</leafValues></_>
        <_>
          <internalNodes>
            0 -1 157 -1.2068771757185459e-03</internalNodes>
          <leafValues>
            4.5991405844688416e-01 -6.5518653392791748e-01</leafValues></_>
        <_>
          <internalNodes>
            0 -1 192 -1.1064694263041019e-03</internalNodes>
          <leafValues>
            6.3362735509872437e-01 -3.8623279333114624e-01</leafValues></_>
        <_>
          <internalNodes>
            0 -1 56 6.6067936131730676e-04</internalNodes>
          <leafValues>
            -3.5543042421340942e-01 7.0407313108444214e-01</leafValues></_>
        <_>
          <internalNodes>
            0 -1 40 2.0094750652788207e-05</internalNodes>
          <leafValues>
            -4.2950206995010376e-01 5.3458124399185181e-01</leafValues></_>
        <_>
          <internalNodes>
            0 -1 62 -2.6420463109388947e-04</internalNodes>
          <leafValues>
            8.1393504142761230e-01 -2.2837333381175995e-01</leafValues></_></weakClassifiers></_>
    <!-- stage 1 -->
    <_>
      <maxWeakCount>7</maxWeakCount>
      <stageThreshold>-7.4245619773864746e-01</stageThreshold>
      <weakClassifiers>
        <_>
          <internalNodes>
            0 -1 98 -1.8316138535737991e-02</internalNodes>
          <leafValues>
            7.7263158559799194e-01 -5.1384615898132324e-01</leafValues></_>
        <_>
          <internalNodes>
            0 -1 29 6.3839465379714966e-02</internalNodes>
          <leafValues>
            -2.4004064500331879e-01 9.4037121534347534e-01</leafValues></_>
        <_>
          <internalNodes>
            0 -1 1 -7.6173245906829834e-02</internalNodes>
          <leafValues>
            9.6237206459045410e-01 -2.4706509709358215e-01</leafValues></_>
        <_>
          <internalNodes>
            0 -1 6 4.2022466659545898e-02</internalNodes>
          <leafValues>
            -1.8442642688751221e-01 9.6236795186996460e-01</leafValues></_>
        <_>
          <internalNodes>
            0 -1 10 -2.8726704418659210e-02</internalNodes>
          <leafValues>
            9.7060585021972656e-01 -2.6837721467018127e-01</leafValues></_>
        <_>
          <internalNodes>
            0 -1 16 -2.9730951064266264e-04</internalNodes>
          <leafValues>
            -8.4788715839385986e-01 3.6382776498794556e-01</leafValues></_>
        <_>
          <internalNodes>
            0 -1 16 2.0944586140103638e-04</internalNodes>
          <leafValues>
            3.4747156500816345e-01 -7.0484215021133423e-01</leafValues></_></weakClassifiers></_>
    <!-- stage 2 -->
    <_>
      <maxWeakCount>10</maxWeakCount>
      <stageThreshold>-1.1954113245010376e+00</stageThreshold>
      <weakClassifiers>
        <_>
          <internalNodes>
            0 -1 20 -3.0521396547555923e-04</internalNodes>
          <leafValues>
            -6.4327484369277954e-01 4.9284577369689941e-01</leafValues></_>
        <_>
          <internalNodes>
            0 -1 14 2.7053660596720874e-04</internalNodes>
          <leafValues>
            3.4619376063346863e-01 -7.9576158523559570e-01</leafValues></_>
        <_>
          <internalNodes>
            0 -1 23 6.3202217221260071e-02</internalNodes>
          <leafValues>
            -3.0269774794578552e-01 9.2592787742614746e-01</leafValues></_>
        <_>
          <internalNodes>
            0 -1 7 -5.4903402924537659e-02</internalNodes>
          <leafValues>
            8.9182192087173462e-01 -2.5817242264747620e-01</leafValues></_>
        <_>
          <internalNodes>
            0 -1 78 -9.4751864671707153e-03</internalNodes>
          <leafValues>
            4.4602343440055847e-01 -5.5743378400802612e-01</leafValues></_>
        <_>
          <internalNodes>
            0 -1 135 -2.5914702564477921e-04</internalNodes>
          <leafValues>
            -7.6009774208068848e-01 2.7321353554725647e-01</leafValues></_>
        <_>
          <internalNodes>
            0 -1 43 -7.2964781429618597e-04</internalNodes>
          <leafValues>
            -8.8667953014373779e-01 1.9762958586215973e-01</leafValues></_>
        <_>
          <internalNodes>
            0 -1 155 -1.2550145387649536e-02</internalNodes>
          <leafValues>
            7.5471752882003784e-01 -3.3884167671203613e-01</leafValues></_>
        <_>
          <internalNodes>
            0 -1 72 5.6495115160942078e-02</internalNodes>
          <leafValues>
            -1.9549544155597687e-01 9.4863760471343994e-01</leafValues></_>
        <_>
          <internalNodes>
            0 -1 44 -2.1730444859713316e-04</internalNodes>
          <leafValues>
            -8.4194767475128174e-01 2.8930240869522095e-01</leafValues></_></weakClassifiers></_>
    <!-- stage 3 -->
    <_>
      <maxWeakCount>8</maxWeakCount>
      <stageThreshold>-1.2098515033721924e+00</stageThreshold>
      <weakClassifiers>
        <_>
          <internalNodes>
            0 -1 26 2.7874394436366856e-04</internalNodes>
          <leafValues>
            4.7867298126220703e-01 -6.1676645278930664e-01</leafValues></_>
        <_>
          <internalNodes>
            0 -1 8 1.4949747920036316e-01</internalNodes>
          <leafValues>
            -2.3069939017295837e-01 9.8831683397293091e-01</leafValues></_>
        <_>
          <internalNodes>
            0 -1 0 -1.5236289799213409e-01</internalNodes>
          <leafValues>
            9.8007124662399292e-01 -1.7272756993770599e-01</leafValues></_>
        <_>
          <internalNodes>
            0 -1 25 -2.5704657309688628e-04</internalNodes>
          <leafValues>
            -6.2587457895278931e-01 3.7965798377990723e-01</leafValues></_>
        <_>
          <internalNodes>
            0 -1 229 -2.0230802419973770e-06</internalNodes>
          <leafValues>
            4.3736892938613892e-01 -4.3101990222930908e-01</leafValues></_>
        <_>
          <internalNodes>
            0 -1 143 -1.0939394123852253e-03</internalNodes>
          <leafValues>
            -6.9458466768264771e-01 2.6452508568763733e-01</leafValues></_>
        <_>
          <internalNodes>
            0 -1 31 2.6685610646381974e-04</internalNodes>
          <leafValues>
            1.8649695813655853e-01 -8.6307162046432495e-01</leafValues></_>
        <_>
          <internalNodes>
            0 -1 28 -2.8285945882089436e-04</internalNodes>
          <leafValues>
            -6.7715644836425781e-01 2.7988460659980774e-01</leafValues></_></weakClassifiers></_>
    <!-- stage 4 -->
    <_>
      <maxWeakCount>8</maxWeakCount>
      <stageThreshold>-9.7130715847015381e-01</stageThreshold>
      <weakClassifiers>
        <_>
          <internalNodes>
            0 -1 38 -6.0191960074007511e-04</internalNodes>
          <leafValues>
            -7.2830188274383545e-01 4.4419476389884949e-01</leafValues></_>
        <_>
          <internalNodes>
            0 -1 110 -1.7801992271415656e-06</internalNodes>
          <leafValues>
            5.0121444463729858e-01 -3.8730028271675110e-01</leafValues></_>
        <_>
          <internalNodes>
            0 -1 85 -2.9655827675014734e-03</internalNodes>
          <leafValues>
            3.0094045400619507e-01 -8.1006592512130737e-01</leafValues></_>
        <_>
          <internalNodes>
            0 -1 103 1.7550343045513728e-06</internalNodes>
          <leafValues>
            -4.0517574548721313e-01 5.5538028478622437e-01</leafValues></_>
        <_>
          <internalNodes>
            0 -1 15 2.6021088706329465e-04</internalNodes>
          <leafValues>
            2.9016619920730591e-01 -7.0974808931350708e-01</leafValues></_>
        <_>
          <internalNodes>
            0 -1 231 -1.9027006601390895e-06</internalNodes>
          <leafValues>
            5.2494770288467407e-01 -4.1172143816947937e-01</leafValues></_>
        <_>
          <internalNodes>
            0 -1 12 -2.9141260893084109e-04</internalNodes>
          <leafValues>
            -6.5994191169738770e-01 3.4297746419906616e-01</leafValues></_>
        <_>
          <internalNodes>
            0 -1 11 -7.8626570757478476e-04</internalNodes>
          <leafValues>
            -7.9816150665283203e-01 2.5726127624511719e-01</leafValues></_></weakClassifiers></_>
    <!-- stage 5 -->
    <_>
      <maxWeakCount>10</maxWeakCount>
      <stageThreshold>-9.2710167169570923e-01</stageThreshold>
      <weakClassifiers>
        <_>
          <internalNodes>
            0 -1 24 -2.4158571613952518e-04</internalNodes>
          <leafValues>
            -7.1314740180969238e-01 4.2920681834220886e-01</leafValues></_>
        <_>
          <internalNodes>
            0 -1 188 -1.7801992271415656e-06</internalNodes>
          <leafValues>
            5.1061731576919556e-01 -3.8774037361145020e-01</leafValues></_>
        <_>
          <internalNodes>
            0 -1 64 1.7757294017428649e-06</internalNodes>
          <leafValues>
            -3.1067207455635071e-01 5.9366762638092041e-01</leafValues></_>
        <_>
          <internalNodes>
            0 -1 65 -1.7416473383491393e-06</internalNodes>
          <leafValues>
            5.4198122024536133e-01 -3.7180110812187195e-01</leafValues></_>
        <_>
          <internalNodes>
            0 -1 13 -3.4312444040551782e-04</internalNodes>
          <leafValues>
            -6.7582768201828003e-01 2.9754889011383057e-01</leafValues></_>
        <_>
          <internalNodes>
            0 -1 152 -1.9249369506724179e-04</internalNodes>
          <leafValues>
            -7.1825593709945679e-01 2.8665071725845337e-01</leafValues></_>
        <_>
          <internalNodes>
            0 -1 181 -1.7794171753848786e-06</internalNodes>
          <leafValues>
            4.6759110689163208e-01 -4.5079019665718079e-01</leafValues></_>
        <_>
          <internalNodes>
            0 -1 3 2.6385328965261579e-04</internalNodes>
          <leafValues>
            2.5384294986724854e-01 -7.2099137306213379e-01</leafValues></_>
        <_>
          <internalNodes>
            0 -1 113 9.2117395251989365e-04</internalNodes>
          <leafValues>
            -6.3505667448043823e-01 2.8796178102493286e-01</leafValues></_>
        <_>
          <internalNodes>
            0 -1 19 1.9305723253637552e-04</internalNodes>
          <leafValues>
            2.7474281191825867e-01 -7.1305322647094727e-01</leafValues></_></weakClassifiers></_>
    <!-- stage 6 -->
    <_>
      <maxWeakCount>9</maxWeakCount>
      <stageThreshold>-1.9403349161148071e+00</stageThreshold>
      <weakClassifiers>
        <_>
          <internalNodes>
            0 -1 178 -1.7550343045513728e-06</internalNodes>
          <leafValues>
            7.6902174949645996e-01 -1.9212962687015533e-01</leafValues></_>
        <_>
          <internalNodes>
            0 -1 37 1.7902666513691656e-06</internalNodes>
          <leafValues>
            -3.1981897354125977e-01 7.1200585365295410e-01</leafValues></_>
        <_>
          <internalNodes>
            0 -1 228 -1.8473781437933212e-06</internalNodes>
          <leafValues>
            6.6356199979782104e-01 -3.5455915331840515e-01</leafValues></_>
        <_>
          <internalNodes>
            0 -1 222 -1.7416473383491393e-06</internalNodes>
          <leafValues>
            6.4737045764923096e-01 -3.9169389009475708e-01</leafValues></_>
        <_>
          <internalNodes>
            0 -1 200 -1.9162168882758124e-06</internalNodes>
          <leafValues>
            6.6230398416519165e-01 -3.7630912661552429e-01</leafValues></_>
        <_>
          <internalNodes>
            0 -1 47 1.9678350327012595e-06</internalNodes>
          <leafValues>
            -3.4224003553390503e-01 7.4556422233581543e-01</leafValues></_>
        <_>
          <internalNodes>
            0 -1 74 1.7002055301418295e-06</internalNodes>
          <leafValues>
            -3.6062625050544739e-01 6.4951223134994507e-01</leafValues></_>
        <_>
          <internalNodes>
            0 -1 224 -1.7550343045513728e-06</internalNodes>
          <leafValues>
            6.8120419979095459e-01 -3.3509677648544312e-01</leafValues></_>
        <_>
          <internalNodes>
            0 -1 225 -1.7801992271415656e-06</internalNodes>
          <leafValues>
            7.1620261669158936e-01 -3.0647420883178711e-01</leafValues></_></weakClassifiers></_>
    <!-- stage 7 -->
    <_>
      <maxWeakCount>10</maxWeakCount>
      <stageThreshold>-8.6621558666229248e-01</stageThreshold>
      <weakClassifiers>
        <_>
          <internalNodes>
            0 -1 114 -4.2013409547507763e-03</internalNodes>
          <leafValues>
            5.1355934143066406e-01 -4.9047619104385376e-01</leafValues></_>
        <_>
          <internalNodes>
            0 -1 86 1.2631310150027275e-02</internalNodes>
          <leafValues>
            2.3004439473152161e-01 -8.9658850431442261e-01</leafValues></_>
        <_>
          <internalNodes>
            0 -1 59 -5.5223475210368633e-03</internalNodes>
          <leafValues>
            -6.5240919589996338e-01 3.5646057128906250e-01</leafValues></_>
        <_>
          <internalNodes>
            0 -1 41 -2.5768796913325787e-03</internalNodes>
          <leafValues>
            6.4894616603851318e-01 -2.9173141717910767e-01</leafValues></_>
        <_>
          <internalNodes>
            0 -1 30 2.8228219598531723e-02</internalNodes>
          <leafValues>
            2.0247355103492737e-01 -7.9608941078186035e-01</leafValues></_>
        <_>
          <internalNodes>
            0 -1 136 9.8540466278791428e-03</internalNodes>
          <leafValues>
            1.4615137875080109e-01 -8.2431012392044067e-01</leafValues></_>
        <_>
          <internalNodes>
            0 -1 161 -1.5809696633368731e-03</internalNodes>
          <leafValues>
            7.8498941659927368e-01 -2.6601922512054443e-01</leafValues></_>
        <_>
          <internalNodes>
            0 -1 53 -1.2541728094220161e-02</internalNodes>
          <leafValues>
            -7.7775204181671143e-01 2.4575662612915039e-01</leafValues></_>
        <_>
          <internalNodes>
            0 -1 146 -4.0066736983135343e-04</internalNodes>
          <leafValues>
            7.6103770732879639e-01 -2.2363322973251343e-01</leafValues></_>
        <_>
          <internalNodes>
            0 -1 232 -5.3608906455338001e-04</internalNodes>
          <leafValues>
            -4.6495380997657776e-01 3.4591829776763916e-01</leafValues></_></weakClassifiers></_>
    <!-- stage 8 -->
    <_>
      <maxWeakCount>10</maxWeakCount>
      <stageThreshold>-1.4328289031982422e+00</stageThreshold>
      <weakClassifiers>
        <_>
          <internalNodes>
            0 -1 82 -1.0489696636795998e-02</internalNodes>
          <leafValues>
            5.6261342763900757e-01 -4.4176706671714783e-01</leafValues></_>
        <_>
          <internalNodes>
            0 -1 48 -2.7204407379031181e-03</internalNodes>
          <leafValues>
            8.0576044321060181e-01 -2.6087003946304321e-01</leafValues></_>
        <_>
          <internalNodes>
            0 -1 212 2.8216433711349964e-03</internalNodes>
          <leafValues>
            -2.9062137007713318e-01 6.5689301490783691e-01</leafValues></_>
        <_>
          <internalNodes>
            0 -1 147 -1.0082356166094542e-03</internalNodes>
          <leafValues>
            8.4589904546737671e-01 -2.5347352027893066e-01</leafValues></_>
        <_>
          <internalNodes>
            0 -1 158 2.2467717644758523e-04</internalNodes>
          <leafValues>
            -2.3189388215541840e-01 8.0618149042129517e-01</leafValues></_>
        <_>
          <internalNodes>
            0 -1 42 1.7404349055141211e-03</internalNodes>
          <leafValues>
            -2.1055713295936584e-01 7.5600045919418335e-01</leafValues></_>
        <_>
          <internalNodes>
            0 -1 195 8.9942966587841511e-04</internalNodes>
          <leafValues>
            -1.9355051219463348e-01 7.9983472824096680e-01</leafValues></_>
        <_>
          <internalNodes>
            0 -1 199 -8.6176081094890833e-04</internalNodes>
          <leafValues>
            7.9521143436431885e-01 -2.6652172207832336e-01</leafValues></_>
        <_>
          <internalNodes>
            0 -1 138 -4.5005226274952292e-04</internalNodes>
          <leafValues>
            8.9327889680862427e-01 -1.5697658061981201e-01</leafValues></_>
        <_>
          <internalNodes>
            0 -1 58 1.3266582973301411e-03</internalNodes>
          <leafValues>
            -1.8833018839359283e-01 7.8124904632568359e-01</leafValues></_></weakClassifiers></_>
    <!-- stage 9 -->
    <_>
      <maxWeakCount>11</maxWeakCount>
      <stageThreshold>-1.1172214746475220e+00</stageThreshold>
      <weakClassifiers>
        <_>
          <internalNodes>
            0 -1 173 2.8975868190173060e-05</internalNodes>
          <leafValues>
            4.2011833190917969e-01 -6.7741936445236206e-01</leafValues></_>
        <_>
          <internalNodes>
            0 -1 140 1.1286445660516620e-03</internalNodes>
          <leafValues>
            -2.1555653214454651e-01 8.7875139713287354e-01</leafValues></_>
        <_>
          <internalNodes>
            0 -1 148 2.2510017151944339e-04</internalNodes>
          <leafValues>
            -1.7815826833248138e-01 8.0512154102325439e-01</leafValues></_>
        <_>
          <internalNodes>
            0 -1 150 -3.1168333953246474e-04</internalNodes>
          <leafValues>
            6.5069717168807983e-01 -2.3746693134307861e-01</leafValues></_>
        <_>
          <internalNodes>
            0 -1 196 -3.5407398827373981e-03</internalNodes>
          <leafValues>
            7.7438777685165405e-01 -2.0090913772583008e-01</leafValues></_>
        <_>
          <internalNodes>
            0 -1 112 6.2613971531391144e-03</internalNodes>
          <leafValues>
            -2.6910305023193359e-01 5.7324457168579102e-01</leafValues></_>
        <_>
          <internalNodes>
            0 -1 186 3.0195820727385581e-05</internalNodes>
          <leafValues>
            2.3335611820220947e-01 -7.8103065490722656e-01</leafValues></_>
        <_>
          <internalNodes>
            0 -1 144 8.5367430001497269e-03</internalNodes>
          <leafValues>
            -3.3453670144081116e-01 5.5821615457534790e-01</leafValues></_>
        <_>
          <internalNodes>
            0 -1 172 -2.3973560018930584e-05</internalNodes>
          <leafValues>
            -7.5586855411529541e-01 2.2144380211830139e-01</leafValues></_>
        <_>
          <internalNodes>
            0 -1 76 -1.6751785296946764e-03</internalNodes>
          <leafValues>
            8.3517116308212280e-01 -2.2378967702388763e-01</leafValues></_>
        <_>
          <internalNodes>
            0 -1 116 -2.4550710804760456e-04</internalNodes>
          <leafValues>
            7.6491832733154297e-01 -1.8861974775791168e-01</leafValues></_></weakClassifiers></_>
    <!-- stage 10 -->
    <_>
      <maxWeakCount>12</maxWeakCount>
      <stageThreshold>-1.0730947256088257e+00</stageThreshold>
      <weakClassifiers>
        <_>
          <internalNodes>
            0 -1 173 -3.4942517231684178e-05</internalNodes>
          <leafValues>
            -6.4750957489013672e-01 4.2494398355484009e-01</leafValues></_>
        <_>
          <internalNodes>
            0 -1 97 1.7814336344599724e-02</internalNodes>
          <leafValues>
            -2.8208142518997192e-01 5.9832262992858887e-01</leafValues></_>
        <_>
          <internalNodes>
            0 -1 80 1.0564472526311874e-02</internalNodes>
          <leafValues>
            -1.6319729387760162e-01 8.0675923824310303e-01</leafValues></_>
        <_>
          <internalNodes>
            0 -1 119 3.2559507526457310e-03</internalNodes>
          <leafValues>
            -2.0913605391979218e-01 7.0075237751007080e-01</leafValues></_>
        <_>
          <internalNodes>
            0 -1 63 4.7992859035730362e-03</internalNodes>
          <leafValues>
            -2.8058192133903503e-01 4.9210074543952942e-01</leafValues></_>
        <_>
          <internalNodes>
            0 -1 218 -4.2231840780004859e-05</internalNodes>
          <leafValues>
            -6.1722010374069214e-01 2.6268133521080017e-01</leafValues></_>
        <_>
          <internalNodes>
            0 -1 165 -3.0989853257779032e-05</internalNodes>
          <leafValues>
            -7.9382604360580444e-01 1.2677139043807983e-01</leafValues></_>
        <_>
          <internalNodes>
            0 -1 204 6.0258237645030022e-03</internalNodes>
          <leafValues>
            -2.2823134064674377e-01 6.7154532670974731e-01</leafValues></_>
        <_>
          <internalNodes>
            0 -1 156 -1.0334496619179845e-03</internalNodes>
          <leafValues>
            2.6293370127677917e-01 -5.7053685188293457e-01</leafValues></_>
        <_>
          <internalNodes>
            0 -1 108 -4.8549060011282563e-05</internalNodes>
          <leafValues>
            -6.4385455846786499e-01 2.4515387415885925e-01</leafValues></_>
        <_>
          <internalNodes>
            0 -1 182 2.5237670633941889e-03</internalNodes>
          <leafValues>
            -4.2381128668785095e-01 3.2205602526664734e-01</leafValues></_>
        <_>
          <internalNodes>
            0 -1 165 3.7129750126041472e-05</internalNodes>
          <leafValues>
            1.9966092705726624e-01 -7.4064636230468750e-01</leafValues></_></weakClassifiers></_>
    <!-- stage 11 -->
    <_>
      <maxWeakCount>14</maxWeakCount>
      <stageThreshold>-1.0556079149246216e+00</stageThreshold>
      <weakClassifiers>
        <_>
          <internalNodes>
            0 -1 183 1.2980652973055840e-02</internalNodes>
          <leafValues>
            3.7317582964897156e-01 -8.5093170404434204e-01</leafValues></_>
        <_>
          <internalNodes>
            0 -1 120 -1.5336400829255581e-03</internalNodes>
          <leafValues>
            3.4473860263824463e-01 -4.2210543155670166e-01</leafValues></_>
        <_>
          <internalNodes>
            0 -1 139 1.0624630376696587e-03</internalNodes>
          <leafValues>
            -2.4273517727851868e-01 6.2964248657226562e-01</leafValues></_>
        <_>
          <internalNodes>
            0 -1 226 4.2162891986663453e-06</internalNodes>
          <leafValues>
            -4.2716005444526672e-01 2.9941835999488831e-01</leafValues></_>
        <_>
          <internalNodes>
            0 -1 170 2.5991530856117606e-04</internalNodes>
          <leafValues>
            -2.2740888595581055e-01 6.6571724414825439e-01</leafValues></_>
        <_>
          <internalNodes>
            0 -1 169 2.8724412550218403e-04</internalNodes>
          <leafValues>
            -1.8493415415287018e-01 7.4981355667114258e-01</leafValues></_>
        <_>
          <internalNodes>
            0 -1 67 -5.9982983657391742e-05</internalNodes>
          <leafValues>
            -5.9141391515731812e-01 2.6240709424018860e-01</leafValues></_>
        <_>
          <internalNodes>
            0 -1 104 -9.4840899109840393e-03</internalNodes>
          <leafValues>
            8.5170793533325195e-01 -1.8079741299152374e-01</leafValues></_>
        <_>
          <internalNodes>
            0 -1 159 4.4630118645727634e-04</internalNodes>
          <leafValues>
            -3.3660382032394409e-01 3.8514944911003113e-01</leafValues></_>
        <_>
          <internalNodes>
            0 -1 211 5.5857142433524132e-03</internalNodes>
          <leafValues>
            -2.8281903266906738e-01 4.4450005888938904e-01</leafValues></_>
        <_>
          <internalNodes>
            0 -1 124 -4.7438308683922514e-05</internalNodes>
          <leafValues>
            -5.9993201494216919e-01 2.2705382108688354e-01</leafValues></_>
        <_>
          <internalNodes>
            0 -1 55 -1.3348459266126156e-02</internalNodes>
          <leafValues>
            -8.1022691726684570e-01 1.3862846791744232e-01</leafValues></_>
        <_>
          <internalNodes>
            0 -1 184 -1.9679841898323502e-06</internalNodes>
          <leafValues>
            3.4010720252990723e-01 -3.7699717283248901e-01</leafValues></_>
        <_>
          <internalNodes>
            0 -1 137 2.8418740257620811e-03</internalNodes>
          <leafValues>
            1.3449299335479736e-01 -8.9417827129364014e-01</leafValues></_></weakClassifiers></_>
    <!-- stage 12 -->
    <_>
      <maxWeakCount>16</maxWeakCount>
      <stageThreshold>-1.2873589992523193e+00</stageThreshold>
      <weakClassifiers>
        <_>
          <internalNodes>
            0 -1 215 -4.8537323891650885e-05</internalNodes>
          <leafValues>
            -6.2500000000000000e-01 4.0441176295280457e-01</leafValues></_>
        <_>
          <internalNodes>
            0 -1 57 -3.6587574868462980e-05</internalNodes>
          <leafValues>
            -6.9084149599075317e-01 1.7906793951988220e-01</leafValues></_>
        <_>
          <internalNodes>
            0 -1 202 -6.3625480979681015e-03</internalNodes>
          <leafValues>
            5.9441810846328735e-01 -2.0052006840705872e-01</leafValues></_>
        <_>
          <internalNodes>
            0 -1 129 -2.3916874080896378e-02</internalNodes>
          <leafValues>
            -9.0570515394210815e-01 1.4254811406135559e-01</leafValues></_>
        <_>
          <internalNodes>
            0 -1 117 9.8657589405775070e-03</internalNodes>
          <leafValues>
            -1.6392995417118073e-01 7.2070538997650146e-01</leafValues></_>
        <_>
          <internalNodes>
            0 -1 125 1.8311702879145741e-03</internalNodes>
          <leafValues>
            -2.0047107338905334e-01 6.5741133689880371e-01</leafValues></_>
        <_>
          <internalNodes>
            0 -1 89 -2.8171536541776732e-05</internalNodes>
          <leafValues>
            -6.7640858888626099e-01 1.7805871367454529e-01</leafValues></_>
        <_>
          <internalNodes>
            0 -1 221 2.2073274521972053e-05</internalNodes>
          <leafValues>
            2.1791620552539825e-01 -5.2441871166229248e-01</leafValues></_>
        <_>
          <internalNodes>
            0 -1 145 -3.5530520835891366e-04</internalNodes>
          <leafValues>
            5.0335663557052612e-01 -2.4670687317848206e-01</leafValues></_>
        <_>
          <internalNodes>
            0 -1 121 2.7137584402225912e-04</internalNodes>
          <leafValues>
            -2.0860873162746429e-01 5.9155982732772827e-01</leafValues></_>
        <_>
          <internalNodes>
            0 -1 99 4.2299884626118001e-06</internalNodes>
          <leafValues>
            -3.3618044853210449e-01 3.5589396953582764e-01</leafValues></_>
        <_>
          <internalNodes>
            0 -1 115 -2.0498703233897686e-03</internalNodes>
          <leafValues>
            8.1615942716598511e-01 -1.7843459546566010e-01</leafValues></_>
        <_>
          <internalNodes>
            0 -1 166 -6.5601838286966085e-05</internalNodes>
          <leafValues>
            -5.4965424537658691e-01 2.5904464721679688e-01</leafValues></_>
        <_>
          <internalNodes>
            0 -1 194 -1.6998745501041412e-02</internalNodes>
          <leafValues>
            4.9343252182006836e-01 -2.5025704503059387e-01</leafValues></_>
        <_>
          <internalNodes>
            0 -1 34 7.2143465280532837e-02</internalNodes>
          <leafValues>
            1.6956670582294464e-01 -8.7580341100692749e-01</leafValues></_>
        <_>
          <internalNodes>
            0 -1 18 -6.2606155872344971e-02</internalNodes>
          <leafValues>
            7.2672593593597412e-01 -1.9068346917629242e-01</leafValues></_></weakClassifiers></_>
    <!-- stage 13 -->
    <_>
      <maxWeakCount>13</maxWeakCount>
      <stageThreshold>-1.2128105163574219e+00</stageThreshold>
      <weakClassifiers>
        <_>
          <internalNodes>
            0 -1 153 -2.7757418138207868e-05</internalNodes>
          <leafValues>
            -6.8531471490859985e-01 4.5357686281204224e-01</leafValues></_>
        <_>
          <internalNodes>
            0 -1 78 -4.5468565076589584e-03</internalNodes>
          <leafValues>
            2.3329873383045197e-01 -7.1066820621490479e-01</leafValues></_>
        <_>
          <internalNodes>
            0 -1 176 1.8456083807905088e-06</internalNodes>
          <leafValues>
            -4.0284517407417297e-01 4.0799263119697571e-01</leafValues></_>
        <_>
          <internalNodes>
            0 -1 171 -3.7032559703220613e-06</internalNodes>
          <leafValues>
            3.4148940443992615e-01 -3.6581468582153320e-01</leafValues></_>
        <_>
          <internalNodes>
            0 -1 128 1.9248911412432790e-03</internalNodes>
          <leafValues>
            -3.2699963450431824e-01 4.8110112547874451e-01</leafValues></_>
        <_>
          <internalNodes>
            0 -1 54 -1.9805032759904861e-02</internalNodes>
          <leafValues>
            -6.5607410669326782e-01 2.1143452823162079e-01</leafValues></_>
        <_>
          <internalNodes>
            0 -1 213 2.4405861040577292e-05</internalNodes>
          <leafValues>
            1.7947214841842651e-01 -6.4051115512847900e-01</leafValues></_>
        <_>
          <internalNodes>
            0 -1 45 3.7596923903038260e-06</internalNodes>
          <leafValues>
            -4.2736011743545532e-01 3.1031507253646851e-01</leafValues></_>
        <_>
          <internalNodes>
            0 -1 163 5.4029864259064198e-04</internalNodes>
          <leafValues>
            -1.7701476812362671e-01 6.9454389810562134e-01</leafValues></_>
        <_>
          <internalNodes>
            0 -1 162 -1.7801992271415656e-06</internalNodes>
          <leafValues>
            4.6099027991294861e-01 -2.7844837307929993e-01</leafValues></_>
        <_>
          <internalNodes>
            0 -1 177 3.3950978831853718e-05</internalNodes>
          <leafValues>
            1.9201704859733582e-01 -7.7698773145675659e-01</leafValues></_>
        <_>
          <internalNodes>
            0 -1 164 -1.5818758356545004e-06</internalNodes>
          <leafValues>
            3.5906183719635010e-01 -3.6593994498252869e-01</leafValues></_>
        <_>
          <internalNodes>
            0 -1 92 1.1281471233814955e-03</internalNodes>
          <leafValues>
            -3.0556905269622803e-01 4.7451922297477722e-01</leafValues></_></weakClassifiers></_>
    <!-- stage 14 -->
    <_>
      <maxWeakCount>15</maxWeakCount>
      <stageThreshold>-1.1582794189453125e+00</stageThreshold>
      <weakClassifiers>
        <_>
          <internalNodes>
            0 -1 141 -2.9885670301155187e-05</internalNodes>
          <leafValues>
            -6.3963961601257324e-01 3.9332365989685059e-01</leafValues></_>
        <_>
          <internalNodes>
            0 -1 141 2.6310812245355919e-05</internalNodes>
          <leafValues>
            1.9561667740345001e-01 -6.8961733579635620e-01</leafValues></_>
        <_>
          <internalNodes>
            0 -1 32 1.8560895114205778e-06</internalNodes>
          <leafValues>
            -3.9518973231315613e-01 2.9218962788581848e-01</leafValues></_>
        <_>
          <internalNodes>
            0 -1 205 7.0777903601992875e-05</internalNodes>
          <leafValues>
            1.8569430708885193e-01 -6.1303579807281494e-01</leafValues></_>
        <_>
          <internalNodes>
            0 -1 101 -1.7902666513691656e-06</internalNodes>
          <leafValues>
            3.5085529088973999e-01 -3.1970545649528503e-01</leafValues></_>
        <_>
          <internalNodes>
            0 -1 100 1.8489620288164588e-06</internalNodes>
          <leafValues>
            -3.8807010650634766e-01 2.7331337332725525e-01</leafValues></_>
        <_>
          <internalNodes>
            0 -1 84 1.2979607097804546e-02</internalNodes>
          <leafValues>
            -3.1529539823532104e-01 3.9774778485298157e-01</leafValues></_>
        <_>
          <internalNodes>
            0 -1 88 2.7128227884531952e-05</internalNodes>
          <leafValues>
            2.2901137173175812e-01 -6.5331149101257324e-01</leafValues></_>
        <_>
          <internalNodes>
            0 -1 88 -2.2047315724194050e-05</internalNodes>
          <leafValues>
            -6.9360357522964478e-01 1.4821591973304749e-01</leafValues></_>
        <_>
          <internalNodes>
            0 -1 118 2.3039688821882010e-03</internalNodes>
          <leafValues>
            -2.1422454714775085e-01 6.0717493295669556e-01</leafValues></_>
        <_>
          <internalNodes>
            0 -1 105 -4.9354378134012222e-03</internalNodes>
          <leafValues>
            7.3200166225433350e-01 -1.4077204465866089e-01</leafValues></_>
        <_>
          <internalNodes>
            0 -1 95 -2.1713780370191671e-05</internalNodes>
          <leafValues>
            -6.1309725046157837e-01 2.0328368246555328e-01</leafValues></_>
        <_>
          <internalNodes>
            0 -1 189 2.9934284975752234e-04</internalNodes>
          <leafValues>
            -1.8246057629585266e-01 6.9102799892425537e-01</leafValues></_>
        <_>
          <internalNodes>
            0 -1 21 1.0865870717680082e-04</internalNodes>
          <leafValues>
            2.4541628360748291e-01 -4.8157089948654175e-01</leafValues></_>
        <_>
          <internalNodes>
            0 -1 102 -1.8382452253717929e-06</internalNodes>
          <leafValues>
            3.7565997242927551e-01 -3.8341960310935974e-01</leafValues></_></weakClassifiers></_>
    <!-- stage 15 -->
    <_>
      <maxWeakCount>16</maxWeakCount>
      <stageThreshold>-1.1882793903350830e+00</stageThreshold>
      <weakClassifiers>
        <_>
          <internalNodes>
            0 -1 230 3.4966946259373799e-05</internalNodes>
          <leafValues>
            -1.8353344500064850e-01 4.9852508306503296e-01</leafValues></_>
        <_>
          <internalNodes>
            0 -1 70 -5.2909804508090019e-03</internalNodes>
          <leafValues>
            4.9627920985221863e-01 -2.0078077912330627e-01</leafValues></_>
        <_>
          <internalNodes>
            0 -1 27 3.4161187708377838e-02</internalNodes>
          <leafValues>
            -1.6009329259395599e-01 7.3863363265991211e-01</leafValues></_>
        <_>
          <internalNodes>
            0 -1 179 2.6729004457592964e-04</internalNodes>
          <leafValues>
            -1.5969298779964447e-01 6.1807000637054443e-01</leafValues></_>
        <_>
          <internalNodes>
            0 -1 5 -7.9945355653762817e-02</internalNodes>
          <leafValues>
            5.7289856672286987e-01 -1.9751793146133423e-01</leafValues></_>
        <_>
          <internalNodes>
            0 -1 180 2.6285450439900160e-04</internalNodes>
          <leafValues>
            -1.5898479521274567e-01 6.6983783245086670e-01</leafValues></_>
        <_>
          <internalNodes>
            0 -1 134 -2.9394796001724899e-04</internalNodes>
          <leafValues>
            3.2053253054618835e-01 -3.1458175182342529e-01</leafValues></_>
        <_>
          <internalNodes>
            0 -1 94 -1.4341555535793304e-02</internalNodes>
          <leafValues>
            -8.7664198875427246e-01 1.2205336242914200e-01</leafValues></_>
        <_>
          <internalNodes>
            0 -1 109 3.9676684536971152e-05</internalNodes>
          <leafValues>
            1.4157845079898834e-01 -6.6408663988113403e-01</leafValues></_>
        <_>
          <internalNodes>
            0 -1 111 9.9113117903470993e-04</internalNodes>
          <leafValues>
            -2.5347685813903809e-01 4.4973757863044739e-01</leafValues></_>
        <_>
          <internalNodes>
            0 -1 190 -1.5687778592109680e-02</internalNodes>
          <leafValues>
            4.2660453915596008e-01 -2.3398049175739288e-01</leafValues></_>
        <_>
          <internalNodes>
            0 -1 122 1.9998732022941113e-04</internalNodes>
          <leafValues>
            -2.4373227357864380e-01 4.2556110024452209e-01</leafValues></_>
        <_>
          <internalNodes>
            0 -1 93 2.9075155907776207e-05</internalNodes>
          <leafValues>
            2.2386747598648071e-01 -5.5504065752029419e-01</leafValues></_>
        <_>
          <internalNodes>
            0 -1 96 -1.8540904420660809e-06</internalNodes>
          <leafValues>
            3.2366117835044861e-01 -3.3373016119003296e-01</leafValues></_>
        <_>
          <internalNodes>
            0 -1 133 -3.8985616993159056e-04</internalNodes>
          <leafValues>
            5.1969796419143677e-01 -1.9917018711566925e-01</leafValues></_>
        <_>
          <internalNodes>
            0 -1 87 -4.1025644168257713e-03</internalNodes>
          <leafValues>
            1.8573324382305145e-01 -6.7781108617782593e-01</leafValues></_></weakClassifiers></_>
    <!-- stage 16 -->
    <_>
      <maxWeakCount>17</maxWeakCount>
      <stageThreshold>-9.7187775373458862e-01</stageThreshold>
      <weakClassifiers>
        <_>
          <internalNodes>
            0 -1 142 -3.7480606351891765e-06</internalNodes>
          <leafValues>
            5.1209253072738647e-01 -1.3405238091945648e-01</leafValues></_>
        <_>
          <internalNodes>
            0 -1 127 2.3572795907966793e-04</internalNodes>
          <leafValues>
            -1.5060472488403320e-01 6.2677162885665894e-01</leafValues></_>
        <_>
          <internalNodes>
            0 -1 50 1.4286697842180729e-03</internalNodes>
          <leafValues>
            1.5220403671264648e-01 -7.5864911079406738e-01</leafValues></_>
        <_>
          <internalNodes>
            0 -1 126 2.0783123909495771e-04</internalNodes>
          <leafValues>
            -3.0171215534210205e-01 5.0823193788528442e-01</leafValues></_>
        <_>
          <internalNodes>
            0 -1 217 -9.9513868917711079e-05</internalNodes>
          <leafValues>
            -6.6310000419616699e-01 2.2618678212165833e-01</leafValues></_>
        <_>
          <internalNodes>
            0 -1 52 3.4365352803433780e-06</internalNodes>
          <leafValues>
            -4.0172863006591797e-01 2.3908367753028870e-01</leafValues></_>
        <_>
          <internalNodes>
            0 -1 52 9.7453477792441845e-05</internalNodes>
          <leafValues>
            2.2760295867919922e-01 -5.7986736297607422e-01</leafValues></_>
        <_>
          <internalNodes>
            0 -1 60 -5.4351463913917542e-03</internalNodes>
          <leafValues>
            6.0330128669738770e-01 -2.1092016994953156e-01</leafValues></_>
        <_>
          <internalNodes>
            0 -1 69 4.7032017027959228e-04</internalNodes>
          <leafValues>
            -1.4607305824756622e-01 6.3417202234268188e-01</leafValues></_>
        <_>
          <internalNodes>
            0 -1 83 -2.0271115772629855e-06</internalNodes>
          <leafValues>
            3.2996675372123718e-01 -3.0140689015388489e-01</leafValues></_>
        <_>
          <internalNodes>
            0 -1 4 2.2689432080369443e-04</internalNodes>
          <leafValues>
            1.6832453012466431e-01 -5.4276812076568604e-01</leafValues></_>
        <_>
          <internalNodes>
            0 -1 214 1.1267321184277534e-02</internalNodes>
          <leafValues>
            -1.8999539315700531e-01 6.0085874795913696e-01</leafValues></_>
        <_>
          <internalNodes>
            0 -1 227 -1.6530951485037804e-02</internalNodes>
          <leafValues>
            7.2755414247512817e-01 -1.3534389436244965e-01</leafValues></_>
        <_>
          <internalNodes>
            0 -1 191 -1.5381546691060066e-02</internalNodes>
          <leafValues>
            -8.6967462301254272e-01 1.4797843992710114e-01</leafValues></_>
        <_>
          <internalNodes>
            0 -1 115 4.9944338388741016e-04</internalNodes>
          <leafValues>
            -2.6808971166610718e-01 4.2614805698394775e-01</leafValues></_>
        <_>
          <internalNodes>
            0 -1 115 -1.0767200728878379e-03</internalNodes>
          <leafValues>
            5.6239509582519531e-01 -1.9243848323822021e-01</leafValues></_>
        <_>
          <internalNodes>
            0 -1 210 -7.0852891076356173e-04</internalNodes>
          <leafValues>
            -6.9086378812789917e-01 1.5529184043407440e-01</leafValues></_></weakClassifiers></_>
    <!-- stage 17 -->
    <_>
      <maxWeakCount>17</maxWeakCount>
      <stageThreshold>-8.5256665945053101e-01</stageThreshold>
      <weakClassifiers>
        <_>
          <internalNodes>
            0 -1 223 -5.8879973948933184e-05</internalNodes>
          <leafValues>
            -4.6296295523643494e-01 4.3103447556495667e-01</leafValues></_>
        <_>
          <internalNodes>
            0 -1 168 3.8880989450262859e-05</internalNodes>
          <leafValues>
            1.5453797578811646e-01 -7.1258223056793213e-01</leafValues></_>
        <_>
          <internalNodes>
            0 -1 39 -2.3062853142619133e-03</internalNodes>
          <leafValues>
            4.5974752306938171e-01 -2.4517795443534851e-01</leafValues></_>
        <_>
          <internalNodes>
            0 -1 174 8.4729669615626335e-03</internalNodes>
          <leafValues>
            1.2355492264032364e-01 -8.1980079412460327e-01</leafValues></_>
        <_>
          <internalNodes>
            0 -1 206 -3.3857950256788172e-06</internalNodes>
          <leafValues>
            3.1445255875587463e-01 -3.0950897932052612e-01</leafValues></_>
        <_>
          <internalNodes>
            0 -1 61 1.3384789228439331e-02</internalNodes>
          <leafValues>
            1.2113939970731735e-01 -6.9021493196487427e-01</leafValues></_>
        <_>
          <internalNodes>
            0 -1 233 1.0811204556375742e-03</internalNodes>
          <leafValues>
            1.2635609507560730e-01 -6.2977182865142822e-01</leafValues></_>
        <_>
          <internalNodes>
            0 -1 193 -1.7874751240015030e-02</internalNodes>
          <leafValues>
            5.3800797462463379e-01 -2.2720117866992950e-01</leafValues></_>
        <_>
          <internalNodes>
            0 -1 187 3.2215975807048380e-05</internalNodes>
          <leafValues>
            1.7701929807662964e-01 -6.9326704740524292e-01</leafValues></_>
        <_>
          <internalNodes>
            0 -1 160 5.2955473074689507e-04</internalNodes>
          <leafValues>
            -2.1034106612205505e-01 5.2595919370651245e-01</leafValues></_>
        <_>
          <internalNodes>
            0 -1 175 3.0156428692862391e-04</internalNodes>
          <leafValues>
            -1.4295992255210876e-01 6.3002258539199829e-01</leafValues></_>
        <_>
          <internalNodes>
            0 -1 149 -1.4663727488368750e-03</internalNodes>
          <leafValues>
            5.9891486167907715e-01 -1.7020101845264435e-01</leafValues></_>
        <_>
          <internalNodes>
            0 -1 219 8.0866360804066062e-05</internalNodes>
          <leafValues>
            1.8207038938999176e-01 -5.6306529045104980e-01</leafValues></_>
        <_>
          <internalNodes>
            0 -1 75 4.0759812109172344e-03</internalNodes>
          <leafValues>
            -2.1390534937381744e-01 4.8068454861640930e-01</leafValues></_>
        <_>
          <internalNodes>
            0 -1 66 6.0529280453920364e-03</internalNodes>
          <leafValues>
            -1.6688644886016846e-01 5.5745458602905273e-01</leafValues></_>
        <_>
          <internalNodes>
            0 -1 106 -2.9273234307765961e-02</internalNodes>
          <leafValues>
            -7.5741171836853027e-01 1.4337195456027985e-01</leafValues></_>
        <_>
          <internalNodes>
            0 -1 167 1.2639821507036686e-03</internalNodes>
          <leafValues>
            -2.5352230668067932e-01 4.1100746393203735e-01</leafValues></_></weakClassifiers></_>
    <!-- stage 18 -->
    <_>
      <maxWeakCount>18</maxWeakCount>
      <stageThreshold>-1.0383205413818359e+00</stageThreshold>
      <weakClassifiers>
        <_>
          <internalNodes>
            0 -1 216 -3.5030352883040905e-03</internalNodes>
          <leafValues>
            -6.4197528362274170e-01 3.5048678517341614e-01</leafValues></_>
        <_>
          <internalNodes>
            0 -1 198 2.2034684661775827e-03</internalNodes>
          <leafValues>
            -2.4190637469291687e-01 5.1717084646224976e-01</leafValues></_>
        <_>
          <internalNodes>
            0 -1 220 1.7801992271415656e-06</internalNodes>
          <leafValues>
            -3.6427065730094910e-01 2.9359903931617737e-01</leafValues></_>
        <_>
          <internalNodes>
            0 -1 209 -6.1840312555432320e-03</internalNodes>
          <leafValues>
            5.6488996744155884e-01 -1.8640851974487305e-01</leafValues></_>
        <_>
          <internalNodes>
            0 -1 203 9.7526644822210073e-04</internalNodes>
          <leafValues>
            -2.0914722979068756e-01 4.8233154416084290e-01</leafValues></_>
        <_>
          <internalNodes>
            0 -1 90 -7.4214371852576733e-04</internalNodes>
          <leafValues>
            2.4315632879734039e-01 -4.2127957940101624e-01</leafValues></_>
        <_>
          <internalNodes>
            0 -1 68 6.0187550843693316e-05</internalNodes>
          <leafValues>
            1.9900640845298767e-01 -5.5767142772674561e-01</leafValues></_>
        <_>
          <internalNodes>
            0 -1 71 3.8771031540818512e-04</internalNodes>
          <leafValues>
            1.3955390453338623e-01 -6.4002585411071777e-01</leafValues></_>
        <_>
          <internalNodes>
            0 -1 131 1.5756817301735282e-03</internalNodes>
          <leafValues>
            -1.5370906889438629e-01 6.4254790544509888e-01</leafValues></_>
        <_>
          <internalNodes>
            0 -1 132 4.6239624498412013e-04</internalNodes>
          <leafValues>
            -1.7095762491226196e-01 5.8973622322082520e-01</leafValues></_>
        <_>
          <internalNodes>
            0 -1 208 1.8922062736237422e-05</internalNodes>
          <leafValues>
            1.7930208146572113e-01 -6.2737685441970825e-01</leafValues></_>
        <_>
          <internalNodes>
            0 -1 81 5.4346285760402679e-03</internalNodes>
          <leafValues>
            1.1541277915239334e-01 -7.6657503843307495e-01</leafValues></_>
        <_>
          <internalNodes>
            0 -1 123 -3.4206950658699498e-06</internalNodes>
          <leafValues>
            3.2425725460052490e-01 -3.3274886012077332e-01</leafValues></_>
        <_>
          <internalNodes>
            0 -1 9 -7.5397535692900419e-04</internalNodes>
          <leafValues>
            -7.2362959384918213e-01 1.4000764489173889e-01</leafValues></_>
        <_>
          <internalNodes>
            0 -1 130 1.2656131293624640e-03</internalNodes>
          <leafValues>
            -2.4812753498554230e-01 4.4985437393188477e-01</leafValues></_>
        <_>
          <internalNodes>
            0 -1 207 7.6969165820628405e-04</internalNodes>
          <leafValues>
            -2.6243278384208679e-01 4.1548383235931396e-01</leafValues></_>
        <_>
          <internalNodes>
            0 -1 46 1.7749251564964652e-03</internalNodes>
          <leafValues>
            -2.3955698311328888e-01 4.3242400884628296e-01</leafValues></_>
        <_>
          <internalNodes>
            0 -1 17 -4.3277081567794085e-04</internalNodes>
          <leafValues>
            -7.9615294933319092e-01 1.5129259228706360e-01</leafValues></_></weakClassifiers></_>
    <!-- stage 19 -->
    <_>
      <maxWeakCount>17</maxWeakCount>
      <stageThreshold>-9.0893560647964478e-01</stageThreshold>
      <weakClassifiers>
        <_>
          <internalNodes>
            0 -1 154 3.3648946555331349e-05</internalNodes>
          <leafValues>
            3.5795453190803528e-01 -5.4166668653488159e-01</leafValues></_>
        <_>
          <internalNodes>
            0 -1 51 1.8560895114205778e-06</internalNodes>
          <leafValues>
            -3.0694061517715454e-01 2.8993737697601318e-01</leafValues></_>
        <_>
          <internalNodes>
            0 -1 33 -3.4150374121963978e-03</internalNodes>
          <leafValues>
            3.9527684450149536e-01 -2.4446980655193329e-01</leafValues></_>
        <_>
          <internalNodes>
            0 -1 79 -1.8107484720530920e-06</internalNodes>
          <leafValues>
            3.0554959177970886e-01 -2.9690438508987427e-01</leafValues></_>
        <_>
          <internalNodes>
            0 -1 77 -2.2077106405049562e-03</internalNodes>
          <leafValues>
            6.0714614391326904e-01 -1.4312921464443207e-01</leafValues></_>
        <_>
          <internalNodes>
            0 -1 73 8.2020123954862356e-04</internalNodes>
          <leafValues>
            -2.3549248278141022e-01 4.1681870818138123e-01</leafValues></_>
        <_>
          <internalNodes>
            0 -1 36 -1.1835576151497662e-04</internalNodes>
          <leafValues>
            -6.6399902105331421e-01 1.6408447921276093e-01</leafValues></_>
        <_>
          <internalNodes>
            0 -1 151 3.9304012898355722e-04</internalNodes>
          <leafValues>
            -1.9049057364463806e-01 5.9992641210556030e-01</leafValues></_>
        <_>
          <internalNodes>
            0 -1 35 1.7550343045513728e-06</internalNodes>
          <leafValues>
            -3.2527485489845276e-01 3.1153014302253723e-01</leafValues></_>
        <_>
          <internalNodes>
            0 -1 91 -2.2676297521684319e-04</internalNodes>
          <leafValues>
            4.4988638162612915e-01 -1.9396202266216278e-01</leafValues></_>
        <_>
          <internalNodes>
            0 -1 100 3.4609602153068408e-06</internalNodes>
          <leafValues>
            -3.7446874380111694e-01 2.6843300461769104e-01</leafValues></_>
        <_>
          <internalNodes>
            0 -1 49 7.6528005301952362e-03</internalNodes>
          <leafValues>
            1.7371916770935059e-01 -5.5095988512039185e-01</leafValues></_>
        <_>
          <internalNodes>
            0 -1 22 5.0079438835382462e-02</internalNodes>
          <leafValues>
            -1.9159552454948425e-01 4.8106914758682251e-01</leafValues></_>
        <_>
          <internalNodes>
            0 -1 2 -8.0121740698814392e-02</internalNodes>
          <leafValues>
            5.9971427917480469e-01 -1.8457649648189545e-01</leafValues></_>
        <_>
          <internalNodes>
            0 -1 201 -2.9350467957556248e-04</internalNodes>
          <leafValues>
            6.6771602630615234e-01 -1.3463033735752106e-01</leafValues></_>
        <_>
          <internalNodes>
            0 -1 185 -1.7794171753848786e-06</internalNodes>
          <leafValues>
            2.9938775300979614e-01 -3.1611484289169312e-01</leafValues></_>
        <_>
          <internalNodes>
            0 -1 197 1.2379251420497894e-03</internalNodes>
          <leafValues>
            -1.9682441651821136e-01 5.2237713336944580e-01</leafValues></_></weakClassifiers></_></stages>
  <features>
    <_>
      <rects>
        <_>
          0 0 80 29 -1.</_>
        <_>
          20 0 40 29 2.</_></rects>
      <tilted>0</tilted></_>
    <_>
      <rects>
        <_>
          0 1 80 20 -1.</_>
        <_>
          20 1 40 20 2.</_></rects>
      <tilted>0</tilted></_>
    <_>
      <rects>
        <_>
          0 2 80 16 -1.</_>
        <_>
          20 2 40 16 2.</_></rects>
      <tilted>0</tilted></_>
    <_>
      <rects>
        <_>
          0 3 4 2 -1.</_>
        <_>
          2 3 2 2 2.</_></rects>
      <tilted>0</tilted></_>
    <_>
      <rects>
        <_>
          0 3 4 6 -1.</_>
        <_>
          0 3 2 3 2.</_>
        <_>
          2 6 2 3 2.</_></rects>
      <tilted>0</tilted></_>
    <_>
      <rects>
        <_>
          0 5 28 29 -1.</_>
        <_>
          14 5 14 29 2.</_></rects>
      <tilted>0</tilted></_>
    <_>
      <rects>
        <_>
          0 7 72 15 -1.</_>
        <_>
          18 7 36 15 2.</_></rects>
      <tilted>0</tilted></_>
    <_>
      <rects>
        <_>
          0 8 28 24 -1.</_>
        <_>
          14 8 14 24 2.</_></rects>
      <tilted>0</tilted></_>
    <_>
      <rects>
        <_>
          0 8 80 26 -1.</_>
        <_>
          20 8 40 26 2.</_></rects>
      <tilted>0</tilted></_>
    <_>
      <rects>
        <_>
          0 10 2 27 -1.</_>
        <_>
          1 10 1 27 2.</_></rects>
      <tilted>0</tilted></_>
    <_>
      <rects>
        <_>
          0 10 28 11 -1.</_>
        <_>
          14 10 14 11 2.</_></rects>
      <tilted>0</tilted></_>
    <_>
      <rects>
        <_>
          0 15 3 6 -1.</_>
        <_>
          0 17 3 2 3.</_></rects>
      <tilted>0</tilted></_>
    <_>
      <rects>
        <_>
          0 17 2 8 -1.</_>
        <_>
          0 19 2 4 2.</_></rects>
      <tilted>0</tilted></_>
    <_>
      <rects>
        <_>
          0 20 1 9 -1.</_>
        <_>
          0 23 1 3 3.</_></rects>
      <tilted>0</tilted></_>
    <_>
      <rects>
        <_>
          0 25 6 2 -1.</_>
        <_>
          0 25 3 1 2.</_>
        <_>
          3 26 3 1 2.</_></rects>
      <tilted>0</tilted></_>
    <_>
      <rects>
        <_>
          0 30 2 4 -1.</_>
        <_>
          0 32 2 2 2.</_></rects>
      <tilted>0</tilted></_>
    <_>
      <rects>
        <_>
          0 36 2 4 -1.</_>
        <_>
          0 37 2 2 2.</_></rects>
      <tilted>0</tilted></_>
    <_>
      <rects>
        <_>
          1 4 1 6 -1.</_>
        <_>
          1 6 1 2 3.</_></rects>
      <tilted>0</tilted></_>
    <_>
      <rects>
        <_>
          1 8 24 20 -1.</_>
        <_>
          13 8 12 20 2.</_></rects>
      <tilted>0</tilted></_>
    <_>
      <rects>
        <_>
          1 20 1 4 -1.</_>
        <_>
          1 22 1 2 2.</_></rects>
      <tilted>0</tilted></_>
    <_>
      <rects>
        <_>
          1 24 4 4 -1.</_>
        <_>
          1 24 2 2 2.</_>
        <_>
          3 26 2 2 2.</_></rects>
      <tilted>0</tilted></_>
    <_>
      <rects>
        <_>
          2 11 4 8 -1.</_>
        <_>
          2 11 2 4 2.</_>
        <_>
          4 15 2 4 2.</_></rects>
      <tilted>0</tilted></_>
    <_>
      <rects>
        <_>
          3 21 36 18 -1.</_>
        <_>
          21 21 18 18 2.</_></rects>
      <tilted>0</tilted></_>
    <_>
      <rects>
        <_>
          3 23 76 12 -1.</_>
        <_>
          22 23 38 12 2.</_></rects>
      <tilted>0</tilted></_>
    <_>
      <rects>
        <_>
          4 3 2 1 -1.</_>
        <_>
          4 3 1 1 2.</_></rects>
      <tilted>1</tilted></_>
    <_>
      <rects>
        <_>
          4 10 1 6 -1.</_>
        <_>
          4 13 1 3 2.</_></rects>
      <tilted>0</tilted></_>
    <_>
      <rects>
        <_>
          4 11 2 4 -1.</_>
        <_>
          4 13 2 2 2.</_></rects>
      <tilted>0</tilted></_>
    <_>
      <rects>
        <_>
          4 15 24 14 -1.</_>
        <_>
          16 15 12 14 2.</_></rects>
      <tilted>0</tilted></_>
    <_>
      <rects>
        <_>
          5 25 4 3 -1.</_>
        <_>
          5 26 4 1 3.</_></rects>
      <tilted>0</tilted></_>
    <_>
      <rects>
        <_>
          14 10 64 29 -1.</_>
        <_>
          30 10 32 29 2.</_></rects>
      <tilted>0</tilted></_>
    <_>
      <rects>
        <_>
          15 17 52 7 -1.</_>
        <_>
          41 17 26 7 2.</_></rects>
      <tilted>0</tilted></_>
    <_>
      <rects>
        <_>
          15 20 1 3 -1.</_>
        <_>
          15 21 1 1 3.</_></rects>
      <tilted>0</tilted></_>
    <_>
      <rects>
        <_>
          15 20 4 1 -1.</_>
        <_>
          17 20 2 1 2.</_></rects>
      <tilted>0</tilted></_>
    <_>
      <rects>
        <_>
          15 20 12 7 -1.</_>
        <_>
          21 20 6 7 2.</_></rects>
      <tilted>0</tilted></_>
    <_>
      <rects>
        <_>
          16 8 44 21 -1.</_>
        <_>
          38 8 22 21 2.</_></rects>
      <tilted>0</tilted></_>
    <_>
      <rects>
        <_>
          16 20 2 4 -1.</_>
        <_>
          17 20 1 4 2.</_></rects>
      <tilted>0</tilted></_>
    <_>
      <rects>
        <_>
          17 24 2 2 -1.</_>
        <_>
          17 25 2 1 2.</_></rects>
      <tilted>0</tilted></_>
    <_>
      <rects>
        <_>
          17 28 2 1 -1.</_>
        <_>
          18 28 1 1 2.</_></rects>
      <tilted>0</tilted></_>
    <_>
      <rects>
        <_>
          18 19 4 4 -1.</_>
        <_>
          18 20 4 2 2.</_></rects>
      <tilted>0</tilted></_>
    <_>
      <rects>
        <_>
          19 19 6 7 -1.</_>
        <_>
          22 19 3 7 2.</_></rects>
      <tilted>0</tilted></_>
    <_>
      <rects>
        <_>
          19 26 2 2 -1.</_>
        <_>
          19 26 2 1 2.</_></rects>
      <tilted>1</tilted></_>
    <_>
      <rects>
        <_>
          20 14 4 13 -1.</_>
        <_>
          22 14 2 13 2.</_></rects>
      <tilted>0</tilted></_>
    <_>
      <rects>
        <_>
          20 14 6 16 -1.</_>
        <_>
          22 14 2 16 3.</_></rects>
      <tilted>0</tilted></_>
    <_>
      <rects>
        <_>
          20 20 5 3 -1.</_>
        <_>
          20 21 5 1 3.</_></rects>
      <tilted>0</tilted></_>
    <_>
      <rects>
        <_>
          20 21 2 2 -1.</_>
        <_>
          20 22 2 1 2.</_></rects>
      <tilted>0</tilted></_>
    <_>
      <rects>
        <_>
          20 28 1 2 -1.</_>
        <_>
          20 28 1 1 2.</_></rects>
      <tilted>1</tilted></_>
    <_>
      <rects>
        <_>
          21 10 6 3 -1.</_>
        <_>
          23 12 2 3 3.</_></rects>
      <tilted>1</tilted></_>
    <_>
      <rects>
        <_>
          21 11 2 1 -1.</_>
        <_>
          22 11 1 1 2.</_></rects>
      <tilted>0</tilted></_>
    <_>
      <rects>
        <_>
          21 14 6 14 -1.</_>
        <_>
          23 14 2 14 3.</_></rects>
      <tilted>0</tilted></_>
    <_>
      <rects>
        <_>
          21 16 30 8 -1.</_>
        <_>
          31 16 10 8 3.</_></rects>
      <tilted>0</tilted></_>
    <_>
      <rects>
        <_>
          21 18 4 6 -1.</_>
        <_>
          21 20 4 2 3.</_></rects>
      <tilted>0</tilted></_>
    <_>
      <rects>
        <_>
          21 20 1 2 -1.</_>
        <_>
          21 20 1 1 2.</_></rects>
      <tilted>1</tilted></_>
    <_>
      <rects>
        <_>
          21 28 1 2 -1.</_>
        <_>
          21 28 1 1 2.</_></rects>
      <tilted>1</tilted></_>
    <_>
      <rects>
        <_>
          22 10 18 13 -1.</_>
        <_>
          31 10 9 13 2.</_></rects>
      <tilted>0</tilted></_>
    <_>
      <rects>
        <_>
          22 11 28 15 -1.</_>
        <_>
          36 11 14 15 2.</_></rects>
      <tilted>0</tilted></_>
    <_>
      <rects>
        <_>
          22 15 27 11 -1.</_>
        <_>
          31 15 9 11 3.</_></rects>
      <tilted>0</tilted></_>
    <_>
      <rects>
        <_>
          22 20 12 1 -1.</_>
        <_>
          28 20 6 1 2.</_></rects>
      <tilted>0</tilted></_>
    <_>
      <rects>
        <_>
          22 26 1 2 -1.</_>
        <_>
          22 27 1 1 2.</_></rects>
      <tilted>0</tilted></_>
    <_>
      <rects>
        <_>
          23 6 6 2 -1.</_>
        <_>
          25 8 2 2 3.</_></rects>
      <tilted>1</tilted></_>
    <_>
      <rects>
        <_>
          23 18 36 9 -1.</_>
        <_>
          41 18 18 9 2.</_></rects>
      <tilted>0</tilted></_>
    <_>
      <rects>
        <_>
          24 10 6 5 -1.</_>
        <_>
          26 12 2 5 3.</_></rects>
      <tilted>1</tilted></_>
    <_>
      <rects>
        <_>
          24 12 11 20 -1.</_>
        <_>
          24 22 11 10 2.</_></rects>
      <tilted>0</tilted></_>
    <_>
      <rects>
        <_>
          24 13 3 1 -1.</_>
        <_>
          25 14 1 1 3.</_></rects>
      <tilted>1</tilted></_>
    <_>
      <rects>
        <_>
          24 15 12 6 -1.</_>
        <_>
          28 17 4 2 9.</_></rects>
      <tilted>0</tilted></_>
    <_>
      <rects>
        <_>
          24 20 2 1 -1.</_>
        <_>
          25 20 1 1 2.</_></rects>
      <tilted>0</tilted></_>
    <_>
      <rects>
        <_>
          24 20 1 2 -1.</_>
        <_>
          24 21 1 1 2.</_></rects>
      <tilted>0</tilted></_>
    <_>
      <rects>
        <_>
          24 24 6 9 -1.</_>
        <_>
          21 27 6 3 3.</_></rects>
      <tilted>1</tilted></_>
    <_>
      <rects>
        <_>
          24 25 2 1 -1.</_>
        <_>
          24 25 1 1 2.</_></rects>
      <tilted>1</tilted></_>
    <_>
      <rects>
        <_>
          24 30 2 1 -1.</_>
        <_>
          24 30 1 1 2.</_></rects>
      <tilted>1</tilted></_>
    <_>
      <rects>
        <_>
          25 12 3 1 -1.</_>
        <_>
          26 13 1 1 3.</_></rects>
      <tilted>1</tilted></_>
    <_>
      <rects>
        <_>
          25 23 11 6 -1.</_>
        <_>
          25 23 11 3 2.</_></rects>
      <tilted>1</tilted></_>
    <_>
      <rects>
        <_>
          25 29 3 2 -1.</_>
        <_>
          26 30 1 2 3.</_></rects>
      <tilted>1</tilted></_>
    <_>
      <rects>
        <_>
          26 0 28 40 -1.</_>
        <_>
          26 10 28 20 2.</_></rects>
      <tilted>0</tilted></_>
    <_>
      <rects>
        <_>
          27 9 4 6 -1.</_>
        <_>
          28 10 2 6 2.</_></rects>
      <tilted>1</tilted></_>
    <_>
      <rects>
        <_>
          27 13 2 1 -1.</_>
        <_>
          28 13 1 1 2.</_></rects>
      <tilted>0</tilted></_>
    <_>
      <rects>
        <_>
          28 2 8 9 -1.</_>
        <_>
          28 5 8 3 3.</_></rects>
      <tilted>0</tilted></_>
    <_>
      <rects>
        <_>
          28 9 3 5 -1.</_>
        <_>
          29 10 1 5 3.</_></rects>
      <tilted>1</tilted></_>
    <_>
      <rects>
        <_>
          28 9 3 8 -1.</_>
        <_>
          29 10 1 8 3.</_></rects>
      <tilted>1</tilted></_>
    <_>
      <rects>
        <_>
          28 15 21 9 -1.</_>
        <_>
          35 18 7 3 9.</_></rects>
      <tilted>0</tilted></_>
    <_>
      <rects>
        <_>
          28 37 1 2 -1.</_>
        <_>
          28 38 1 1 2.</_></rects>
      <tilted>0</tilted></_>
    <_>
      <rects>
        <_>
          29 1 17 9 -1.</_>
        <_>
          29 4 17 3 3.</_></rects>
      <tilted>0</tilted></_>
    <_>
      <rects>
        <_>
          29 4 9 12 -1.</_>
        <_>
          32 4 3 12 3.</_></rects>
      <tilted>0</tilted></_>
    <_>
      <rects>
        <_>
          29 16 21 9 -1.</_>
        <_>
          36 19 7 3 9.</_></rects>
      <tilted>0</tilted></_>
    <_>
      <rects>
        <_>
          29 25 2 2 -1.</_>
        <_>
          29 26 2 1 2.</_></rects>
      <tilted>0</tilted></_>
    <_>
      <rects>
        <_>
          30 9 12 12 -1.</_>
        <_>
          34 13 4 4 9.</_></rects>
      <tilted>0</tilted></_>
    <_>
      <rects>
        <_>
          30 14 18 12 -1.</_>
        <_>
          36 18 6 4 9.</_></rects>
      <tilted>0</tilted></_>
    <_>
      <rects>
        <_>
          30 14 20 13 -1.</_>
        <_>
          40 14 10 13 2.</_></rects>
      <tilted>0</tilted></_>
    <_>
      <rects>
        <_>
          30 16 18 9 -1.</_>
        <_>
          36 19 6 3 9.</_></rects>
      <tilted>0</tilted></_>
    <_>
      <rects>
        <_>
          30 19 2 1 -1.</_>
        <_>
          31 19 1 1 2.</_></rects>
      <tilted>0</tilted></_>
    <_>
      <rects>
        <_>
          30 26 2 1 -1.</_>
        <_>
          31 26 1 1 2.</_></rects>
      <tilted>0</tilted></_>
    <_>
      <rects>
        <_>
          31 9 6 9 -1.</_>
        <_>
          31 9 3 9 2.</_></rects>
      <tilted>1</tilted></_>
    <_>
      <rects>
        <_>
          31 22 10 2 -1.</_>
        <_>
          31 22 5 1 2.</_>
        <_>
          36 23 5 1 2.</_></rects>
      <tilted>0</tilted></_>
    <_>
      <rects>
        <_>
          31 22 11 6 -1.</_>
        <_>
          31 24 11 2 3.</_></rects>
      <tilted>0</tilted></_>
    <_>
      <rects>
        <_>
          31 23 2 1 -1.</_>
        <_>
          32 23 1 1 2.</_></rects>
      <tilted>0</tilted></_>
    <_>
      <rects>
        <_>
          32 19 26 9 -1.</_>
        <_>
          45 19 13 9 2.</_></rects>
      <tilted>0</tilted></_>
    <_>
      <rects>
        <_>
          32 30 2 1 -1.</_>
        <_>
          33 30 1 1 2.</_></rects>
      <tilted>0</tilted></_>
    <_>
      <rects>
        <_>
          32 32 1 2 -1.</_>
        <_>
          32 33 1 1 2.</_></rects>
      <tilted>0</tilted></_>
    <_>
      <rects>
        <_>
          33 4 13 18 -1.</_>
        <_>
          33 10 13 6 3.</_></rects>
      <tilted>0</tilted></_>
    <_>
      <rects>
        <_>
          33 11 15 18 -1.</_>
        <_>
          38 17 5 6 9.</_></rects>
      <tilted>0</tilted></_>
    <_>
      <rects>
        <_>
          33 21 1 2 -1.</_>
        <_>
          33 21 1 1 2.</_></rects>
      <tilted>1</tilted></_>
    <_>
      <rects>
        <_>
          33 22 1 2 -1.</_>
        <_>
          33 22 1 1 2.</_></rects>
      <tilted>1</tilted></_>
    <_>
      <rects>
        <_>
          33 27 1 2 -1.</_>
        <_>
          33 28 1 1 2.</_></rects>
      <tilted>0</tilted></_>
    <_>
      <rects>
        <_>
          33 29 2 2 -1.</_>
        <_>
          33 30 2 1 2.</_></rects>
      <tilted>0</tilted></_>
    <_>
      <rects>
        <_>
          33 30 2 1 -1.</_>
        <_>
          34 30 1 1 2.</_></rects>
      <tilted>0</tilted></_>
    <_>
      <rects>
        <_>
          34 0 10 9 -1.</_>
        <_>
          34 3 10 3 3.</_></rects>
      <tilted>0</tilted></_>
    <_>
      <rects>
        <_>
          34 3 10 6 -1.</_>
        <_>
          34 5 10 2 3.</_></rects>
      <tilted>0</tilted></_>
    <_>
      <rects>
        <_>
          34 7 22 26 -1.</_>
        <_>
          45 7 11 26 2.</_></rects>
      <tilted>0</tilted></_>
    <_>
      <rects>
        <_>
          34 14 12 12 -1.</_>
        <_>
          38 18 4 4 9.</_></rects>
      <tilted>0</tilted></_>
    <_>
      <rects>
        <_>
          34 27 2 3 -1.</_>
        <_>
          35 27 1 3 2.</_></rects>
      <tilted>0</tilted></_>
    <_>
      <rects>
        <_>
          34 28 2 1 -1.</_>
        <_>
          35 28 1 1 2.</_></rects>
      <tilted>0</tilted></_>
    <_>
      <rects>
        <_>
          34 29 1 2 -1.</_>
        <_>
          34 30 1 1 2.</_></rects>
      <tilted>0</tilted></_>
    <_>
      <rects>
        <_>
          35 6 4 6 -1.</_>
        <_>
          35 8 4 2 3.</_></rects>
      <tilted>0</tilted></_>
    <_>
      <rects>
        <_>
          35 9 9 9 -1.</_>
        <_>
          38 12 3 3 9.</_></rects>
      <tilted>0</tilted></_>
    <_>
      <rects>
        <_>
          35 10 12 4 -1.</_>
        <_>
          35 10 6 4 2.</_></rects>
      <tilted>1</tilted></_>
    <_>
      <rects>
        <_>
          35 15 12 9 -1.</_>
        <_>
          39 18 4 3 9.</_></rects>
      <tilted>0</tilted></_>
    <_>
      <rects>
        <_>
          35 17 3 3 -1.</_>
        <_>
          36 18 1 1 9.</_></rects>
      <tilted>0</tilted></_>
    <_>
      <rects>
        <_>
          35 19 1 3 -1.</_>
        <_>
          35 20 1 1 3.</_></rects>
      <tilted>0</tilted></_>
    <_>
      <rects>
        <_>
          36 3 13 9 -1.</_>
        <_>
          36 6 13 3 3.</_></rects>
      <tilted>0</tilted></_>
    <_>
      <rects>
        <_>
          36 4 5 6 -1.</_>
        <_>
          36 6 5 2 3.</_></rects>
      <tilted>0</tilted></_>
    <_>
      <rects>
        <_>
          36 6 10 6 -1.</_>
        <_>
          36 8 10 2 3.</_></rects>
      <tilted>0</tilted></_>
    <_>
      <rects>
        <_>
          36 14 9 10 -1.</_>
        <_>
          36 19 9 5 2.</_></rects>
      <tilted>0</tilted></_>
    <_>
      <rects>
        <_>
          36 17 1 3 -1.</_>
        <_>
          36 18 1 1 3.</_></rects>
      <tilted>0</tilted></_>
    <_>
      <rects>
        <_>
          36 18 3 3 -1.</_>
        <_>
          37 18 1 3 3.</_></rects>
      <tilted>0</tilted></_>
    <_>
      <rects>
        <_>
          36 28 1 2 -1.</_>
        <_>
          36 29 1 1 2.</_></rects>
      <tilted>0</tilted></_>
    <_>
      <rects>
        <_>
          36 30 4 1 -1.</_>
        <_>
          38 30 2 1 2.</_></rects>
      <tilted>0</tilted></_>
    <_>
      <rects>
        <_>
          37 7 6 4 -1.</_>
        <_>
          37 9 6 2 2.</_></rects>
      <tilted>0</tilted></_>
    <_>
      <rects>
        <_>
          37 18 1 3 -1.</_>
        <_>
          37 19 1 1 3.</_></rects>
      <tilted>0</tilted></_>
    <_>
      <rects>
        <_>
          37 19 1 3 -1.</_>
        <_>
          37 20 1 1 3.</_></rects>
      <tilted>0</tilted></_>
    <_>
      <rects>
        <_>
          37 22 7 8 -1.</_>
        <_>
          37 26 7 4 2.</_></rects>
      <tilted>0</tilted></_>
    <_>
      <rects>
        <_>
          38 8 16 9 -1.</_>
        <_>
          38 8 8 9 2.</_></rects>
      <tilted>1</tilted></_>
    <_>
      <rects>
        <_>
          38 17 15 1 -1.</_>
        <_>
          43 17 5 1 3.</_></rects>
      <tilted>0</tilted></_>
    <_>
      <rects>
        <_>
          38 20 3 3 -1.</_>
        <_>
          39 21 1 1 9.</_></rects>
      <tilted>0</tilted></_>
    <_>
      <rects>
        <_>
          38 20 4 2 -1.</_>
        <_>
          38 20 2 1 2.</_>
        <_>
          40 21 2 1 2.</_></rects>
      <tilted>0</tilted></_>
    <_>
      <rects>
        <_>
          38 21 3 4 -1.</_>
        <_>
          38 22 3 2 2.</_></rects>
      <tilted>0</tilted></_>
    <_>
      <rects>
        <_>
          38 26 20 1 -1.</_>
        <_>
          48 26 10 1 2.</_></rects>
      <tilted>0</tilted></_>
    <_>
      <rects>
        <_>
          38 31 4 3 -1.</_>
        <_>
          39 31 2 3 2.</_></rects>
      <tilted>0</tilted></_>
    <_>
      <rects>
        <_>
          39 10 16 7 -1.</_>
        <_>
          39 10 8 7 2.</_></rects>
      <tilted>1</tilted></_>
    <_>
      <rects>
        <_>
          39 14 12 5 -1.</_>
        <_>
          39 14 6 5 2.</_></rects>
      <tilted>1</tilted></_>
    <_>
      <rects>
        <_>
          39 17 3 3 -1.</_>
        <_>
          40 17 1 3 3.</_></rects>
      <tilted>0</tilted></_>
    <_>
      <rects>
        <_>
          39 20 3 3 -1.</_>
        <_>
          40 21 1 1 9.</_></rects>
      <tilted>0</tilted></_>
    <_>
      <rects>
        <_>
          39 21 3 3 -1.</_>
        <_>
          40 22 1 1 9.</_></rects>
      <tilted>0</tilted></_>
    <_>
      <rects>
        <_>
          39 27 2 1 -1.</_>
        <_>
          40 27 1 1 2.</_></rects>
      <tilted>0</tilted></_>
    <_>
      <rects>
        <_>
          39 27 1 4 -1.</_>
        <_>
          39 29 1 2 2.</_></rects>
      <tilted>0</tilted></_>
    <_>
      <rects>
        <_>
          39 31 6 6 -1.</_>
        <_>
          41 31 2 6 3.</_></rects>
      <tilted>0</tilted></_>
    <_>
      <rects>
        <_>
          40 13 12 9 -1.</_>
        <_>
          44 16 4 3 9.</_></rects>
      <tilted>0</tilted></_>
    <_>
      <rects>
        <_>
          40 18 3 3 -1.</_>
        <_>
          41 18 1 3 3.</_></rects>
      <tilted>0</tilted></_>
    <_>
      <rects>
        <_>
          40 18 4 2 -1.</_>
        <_>
          40 18 2 1 2.</_>
        <_>
          42 19 2 1 2.</_></rects>
      <tilted>0</tilted></_>
    <_>
      <rects>
        <_>
          40 19 3 3 -1.</_>
        <_>
          41 20 1 1 9.</_></rects>
      <tilted>0</tilted></_>
    <_>
      <rects>
        <_>
          40 20 1 3 -1.</_>
        <_>
          40 21 1 1 3.</_></rects>
      <tilted>0</tilted></_>
    <_>
      <rects>
        <_>
          40 20 3 3 -1.</_>
        <_>
          41 21 1 1 9.</_></rects>
      <tilted>0</tilted></_>
    <_>
      <rects>
        <_>
          40 20 3 1 -1.</_>
        <_>
          41 21 1 1 3.</_></rects>
      <tilted>1</tilted></_>
    <_>
      <rects>
        <_>
          40 22 1 3 -1.</_>
        <_>
          40 23 1 1 3.</_></rects>
      <tilted>0</tilted></_>
    <_>
      <rects>
        <_>
          40 25 4 2 -1.</_>
        <_>
          41 25 2 2 2.</_></rects>
      <tilted>0</tilted></_>
    <_>
      <rects>
        <_>
          40 28 2 1 -1.</_>
        <_>
          41 28 1 1 2.</_></rects>
      <tilted>0</tilted></_>
    <_>
      <rects>
        <_>
          40 29 2 1 -1.</_>
        <_>
          41 29 1 1 2.</_></rects>
      <tilted>0</tilted></_>
    <_>
      <rects>
        <_>
          41 0 16 14 -1.</_>
        <_>
          41 7 16 7 2.</_></rects>
      <tilted>0</tilted></_>
    <_>
      <rects>
        <_>
          41 17 8 3 -1.</_>
        <_>
          41 17 4 3 2.</_></rects>
      <tilted>1</tilted></_>
    <_>
      <rects>
        <_>
          41 17 8 4 -1.</_>
        <_>
          41 17 4 4 2.</_></rects>
      <tilted>1</tilted></_>
    <_>
      <rects>
        <_>
          41 19 1 3 -1.</_>
        <_>
          41 20 1 1 3.</_></rects>
      <tilted>0</tilted></_>
    <_>
      <rects>
        <_>
          41 19 4 3 -1.</_>
        <_>
          43 19 2 3 2.</_></rects>
      <tilted>0</tilted></_>
    <_>
      <rects>
        <_>
          41 20 3 3 -1.</_>
        <_>
          41 21 3 1 3.</_></rects>
      <tilted>0</tilted></_>
    <_>
      <rects>
        <_>
          41 21 3 3 -1.</_>
        <_>
          42 22 1 1 9.</_></rects>
      <tilted>0</tilted></_>
    <_>
      <rects>
        <_>
          41 22 1 2 -1.</_>
        <_>
          41 23 1 1 2.</_></rects>
      <tilted>0</tilted></_>
    <_>
      <rects>
        <_>
          41 22 2 3 -1.</_>
        <_>
          41 23 2 1 3.</_></rects>
      <tilted>0</tilted></_>
    <_>
      <rects>
        <_>
          41 24 1 2 -1.</_>
        <_>
          41 25 1 1 2.</_></rects>
      <tilted>0</tilted></_>
    <_>
      <rects>
        <_>
          41 26 2 1 -1.</_>
        <_>
          42 26 1 1 2.</_></rects>
      <tilted>0</tilted></_>
    <_>
      <rects>
        <_>
          41 26 6 1 -1.</_>
        <_>
          43 26 2 1 3.</_></rects>
      <tilted>0</tilted></_>
    <_>
      <rects>
        <_>
          41 26 4 9 -1.</_>
        <_>
          41 29 4 3 3.</_></rects>
      <tilted>0</tilted></_>
    <_>
      <rects>
        <_>
          41 27 2 1 -1.</_>
        <_>
          42 27 1 1 2.</_></rects>
      <tilted>0</tilted></_>
    <_>
      <rects>
        <_>
          42 18 1 3 -1.</_>
        <_>
          42 19 1 1 3.</_></rects>
      <tilted>0</tilted></_>
    <_>
      <rects>
        <_>
          42 19 1 3 -1.</_>
        <_>
          42 20 1 1 3.</_></rects>
      <tilted>0</tilted></_>
    <_>
      <rects>
        <_>
          42 25 2 2 -1.</_>
        <_>
          42 26 2 1 2.</_></rects>
      <tilted>0</tilted></_>
    <_>
      <rects>
        <_>
          42 27 2 1 -1.</_>
        <_>
          43 27 1 1 2.</_></rects>
      <tilted>0</tilted></_>
    <_>
      <rects>
        <_>
          42 28 2 1 -1.</_>
        <_>
          43 28 1 1 2.</_></rects>
      <tilted>0</tilted></_>
    <_>
      <rects>
        <_>
          43 11 6 12 -1.</_>
        <_>
          43 11 6 6 2.</_></rects>
      <tilted>1</tilted></_>
    <_>
      <rects>
        <_>
          43 19 1 3 -1.</_>
        <_>
          43 20 1 1 3.</_></rects>
      <tilted>0</tilted></_>
    <_>
      <rects>
        <_>
          43 26 2 1 -1.</_>
        <_>
          43 26 1 1 2.</_></rects>
      <tilted>1</tilted></_>
    <_>
      <rects>
        <_>
          43 27 2 1 -1.</_>
        <_>
          44 27 1 1 2.</_></rects>
      <tilted>0</tilted></_>
    <_>
      <rects>
        <_>
          43 28 1 2 -1.</_>
        <_>
          43 29 1 1 2.</_></rects>
      <tilted>0</tilted></_>
    <_>
      <rects>
        <_>
          44 9 1 3 -1.</_>
        <_>
          44 10 1 1 3.</_></rects>
      <tilted>0</tilted></_>
    <_>
      <rects>
        <_>
          44 10 1 3 -1.</_>
        <_>
          44 11 1 1 3.</_></rects>
      <tilted>0</tilted></_>
    <_>
      <rects>
        <_>
          44 25 1 2 -1.</_>
        <_>
          44 26 1 1 2.</_></rects>
      <tilted>0</tilted></_>
    <_>
      <rects>
        <_>
          45 5 6 30 -1.</_>
        <_>
          47 15 2 10 9.</_></rects>
      <tilted>0</tilted></_>
    <_>
      <rects>
        <_>
          45 10 5 18 -1.</_>
        <_>
          45 10 5 9 2.</_></rects>
      <tilted>1</tilted></_>
    <_>
      <rects>
        <_>
          45 22 2 2 -1.</_>
        <_>
          45 23 2 1 2.</_></rects>
      <tilted>0</tilted></_>
    <_>
      <rects>
        <_>
          45 24 1 4 -1.</_>
        <_>
          45 26 1 2 2.</_></rects>
      <tilted>0</tilted></_>
    <_>
      <rects>
        <_>
          45 25 2 1 -1.</_>
        <_>
          46 25 1 1 2.</_></rects>
      <tilted>0</tilted></_>
    <_>
      <rects>
        <_>
          45 27 2 1 -1.</_>
        <_>
          46 27 1 1 2.</_></rects>
      <tilted>0</tilted></_>
    <_>
      <rects>
        <_>
          45 27 1 2 -1.</_>
        <_>
          45 28 1 1 2.</_></rects>
      <tilted>0</tilted></_>
    <_>
      <rects>
        <_>
          46 9 1 3 -1.</_>
        <_>
          46 10 1 1 3.</_></rects>
      <tilted>0</tilted></_>
    <_>
      <rects>
        <_>
          47 25 32 9 -1.</_>
        <_>
          63 25 16 9 2.</_></rects>
      <tilted>0</tilted></_>
    <_>
      <rects>
        <_>
          48 9 12 7 -1.</_>
        <_>
          48 9 6 7 2.</_></rects>
      <tilted>1</tilted></_>
    <_>
      <rects>
        <_>
          49 20 12 7 -1.</_>
        <_>
          53 20 4 7 3.</_></rects>
      <tilted>0</tilted></_>
    <_>
      <rects>
        <_>
          50 12 24 15 -1.</_>
        <_>
          56 12 12 15 2.</_></rects>
      <tilted>0</tilted></_>
    <_>
      <rects>
        <_>
          52 8 18 16 -1.</_>
        <_>
          61 8 9 16 2.</_></rects>
      <tilted>0</tilted></_>
    <_>
      <rects>
        <_>
          52 11 6 3 -1.</_>
        <_>
          51 12 6 1 3.</_></rects>
      <tilted>1</tilted></_>
    <_>
      <rects>
        <_>
          52 14 6 14 -1.</_>
        <_>
          54 14 2 14 3.</_></rects>
      <tilted>0</tilted></_>
    <_>
      <rects>
        <_>
          52 18 8 4 -1.</_>
        <_>
          54 18 4 4 2.</_></rects>
      <tilted>0</tilted></_>
    <_>
      <rects>
        <_>
          52 22 10 6 -1.</_>
        <_>
          57 22 5 6 2.</_></rects>
      <tilted>0</tilted></_>
    <_>
      <rects>
        <_>
          53 11 3 4 -1.</_>
        <_>
          52 12 3 2 2.</_></rects>
      <tilted>1</tilted></_>
    <_>
      <rects>
        <_>
          53 18 2 1 -1.</_>
        <_>
          54 18 1 1 2.</_></rects>
      <tilted>0</tilted></_>
    <_>
      <rects>
        <_>
          53 20 3 1 -1.</_>
        <_>
          54 20 1 1 3.</_></rects>
      <tilted>0</tilted></_>
    <_>
      <rects>
        <_>
          53 21 8 9 -1.</_>
        <_>
          55 23 4 9 2.</_></rects>
      <tilted>1</tilted></_>
    <_>
      <rects>
        <_>
          53 23 4 6 -1.</_>
        <_>
          54 24 2 6 2.</_></rects>
      <tilted>1</tilted></_>
    <_>
      <rects>
        <_>
          53 26 9 5 -1.</_>
        <_>
          56 29 3 5 3.</_></rects>
      <tilted>1</tilted></_>
    <_>
      <rects>
        <_>
          53 28 1 2 -1.</_>
        <_>
          53 28 1 1 2.</_></rects>
      <tilted>1</tilted></_>
    <_>
      <rects>
        <_>
          53 35 1 2 -1.</_>
        <_>
          53 36 1 1 2.</_></rects>
      <tilted>0</tilted></_>
    <_>
      <rects>
        <_>
          54 18 4 17 -1.</_>
        <_>
          55 19 2 17 2.</_></rects>
      <tilted>1</tilted></_>
    <_>
      <rects>
        <_>
          54 22 1 2 -1.</_>
        <_>
          54 23 1 1 2.</_></rects>
      <tilted>0</tilted></_>
    <_>
      <rects>
        <_>
          54 22 6 9 -1.</_>
        <_>
          56 24 2 9 3.</_></rects>
      <tilted>1</tilted></_>
    <_>
      <rects>
        <_>
          54 27 3 3 -1.</_>
        <_>
          53 28 3 1 3.</_></rects>
      <tilted>1</tilted></_>
    <_>
      <rects>
        <_>
          55 12 12 20 -1.</_>
        <_>
          59 12 4 20 3.</_></rects>
      <tilted>0</tilted></_>
    <_>
      <rects>
        <_>
          55 17 9 12 -1.</_>
        <_>
          58 17 3 12 3.</_></rects>
      <tilted>0</tilted></_>
    <_>
      <rects>
        <_>
          55 22 1 2 -1.</_>
        <_>
          55 23 1 1 2.</_></rects>
      <tilted>0</tilted></_>
    <_>
      <rects>
        <_>
          56 1 9 9 -1.</_>
        <_>
          53 4 9 3 3.</_></rects>
      <tilted>1</tilted></_>
    <_>
      <rects>
        <_>
          56 22 1 2 -1.</_>
        <_>
          56 23 1 1 2.</_></rects>
      <tilted>0</tilted></_>
    <_>
      <rects>
        <_>
          56 22 5 6 -1.</_>
        <_>
          54 24 5 2 3.</_></rects>
      <tilted>1</tilted></_>
    <_>
      <rects>
        <_>
          56 24 2 2 -1.</_>
        <_>
          56 25 2 1 2.</_></rects>
      <tilted>0</tilted></_>
    <_>
      <rects>
        <_>
          56 29 1 2 -1.</_>
        <_>
          56 29 1 1 2.</_></rects>
      <tilted>1</tilted></_>
    <_>
      <rects>
        <_>
          57 20 2 1 -1.</_>
        <_>
          57 20 1 1 2.</_></rects>
      <tilted>1</tilted></_>
    <_>
      <rects>
        <_>
          57 26 2 1 -1.</_>
        <_>
          57 26 1 1 2.</_></rects>
      <tilted>1</tilted></_>
    <_>
      <rects>
        <_>
          57 30 2 2 -1.</_>
        <_>
          57 31 2 1 2.</_></rects>
      <tilted>0</tilted></_>
    <_>
      <rects>
        <_>
          57 32 1 2 -1.</_>
        <_>
          57 33 1 1 2.</_></rects>
      <tilted>0</tilted></_>
    <_>
      <rects>
        <_>
          58 24 1 2 -1.</_>
        <_>
          58 24 1 1 2.</_></rects>
      <tilted>1</tilted></_>
    <_>
      <rects>
        <_>
          58 28 1 2 -1.</_>
        <_>
          58 29 1 1 2.</_></rects>
      <tilted>0</tilted></_>
    <_>
      <rects>
        <_>
          59 24 2 1 -1.</_>
        <_>
          60 24 1 1 2.</_></rects>
      <tilted>0</tilted></_>
    <_>
      <rects>
        <_>
          60 26 2 3 -1.</_>
        <_>
          60 26 1 3 2.</_></rects>
      <tilted>1</tilted></_>
    <_>
      <rects>
        <_>
          61 2 9 12 -1.</_>
        <_>
          58 5 9 6 2.</_></rects>
      <tilted>1</tilted></_>
    <_>
      <rects>
        <_>
          61 16 2 2 -1.</_>
        <_>
          62 16 1 2 2.</_></rects>
      <tilted>0</tilted></_>
    <_>
      <rects>
        <_>
          61 21 2 3 -1.</_>
        <_>
          62 21 1 3 2.</_></rects>
      <tilted>0</tilted></_>
    <_>
      <rects>
        <_>
          61 25 2 4 -1.</_>
        <_>
          61 25 1 4 2.</_></rects>
      <tilted>1</tilted></_>
    <_>
      <rects>
        <_>
          64 24 2 1 -1.</_>
        <_>
          65 24 1 1 2.</_></rects>
      <tilted>0</tilted></_>
    <_>
      <rects>
        <_>
          72 21 8 6 -1.</_>
        <_>
          72 23 8 2 3.</_></rects>
      <tilted>0</tilted></_>
    <_>
      <rects>
        <_>
          75 2 2 12 -1.</_>
        <_>
          75 5 2 6 2.</_></rects>
      <tilted>0</tilted></_></features></cascade>
</opencv_storage>
